digraph Tree {
node [shape=box, style="filled, rounded", color="black", fontname=helvetica] ;
edge [fontname=helvetica] ;
0 [label="X[6] <= 4.5\nentropy = 0.76\nsamples = 150\nvalue = [33, 117]", fillcolor="#71b9ec"] ;
1 [label="X[5] <= 0.5\nentropy = 0.976\nsamples = 71\nvalue = [29, 42]", fillcolor="#c2e1f7"] ;
0 -> 1 [labeldistance=2.5, labelangle=45, headlabel="True"] ;
2 [label="X[1] <= 0.5\nentropy = 0.503\nsamples = 27\nvalue = [24, 3]", fillcolor="#e89152"] ;
1 -> 2 ;
3 [label="entropy = 1.0\nsamples = 2\nvalue = [1, 1]", fillcolor="#ffffff"] ;
2 -> 3 ;
4 [label="entropy = 0.402\nsamples = 25\nvalue = [23, 2]", fillcolor="#e78c4a"] ;
2 -> 4 ;
5 [label="X[2] <= 0.5\nentropy = 0.511\nsamples = 44\nvalue = [5, 39]", fillcolor="#52aae8"] ;
1 -> 5 ;
6 [label="entropy = 0.0\nsamples = 12\nvalue = [0, 12]", fillcolor="#399de5"] ;
5 -> 6 ;
7 [label="entropy = 0.625\nsamples = 32\nvalue = [5, 27]", fillcolor="#5eafea"] ;
5 -> 7 ;
8 [label="X[5] <= 0.5\nentropy = 0.289\nsamples = 79\nvalue = [4, 75]", fillcolor="#44a2e6"] ;
0 -> 8 [labeldistance=2.5, labelangle=-45, headlabel="False"] ;
9 [label="entropy = 0.0\nsamples = 29\nvalue = [0, 29]", fillcolor="#399de5"] ;
8 -> 9 ;
10 [label="X[3] <= 0.5\nentropy = 0.402\nsamples = 50\nvalue = [4, 46]", fillcolor="#4aa6e7"] ;
8 -> 10 ;
11 [label="entropy = 0.286\nsamples = 40\nvalue = [2, 38]", fillcolor="#43a2e6"] ;
10 -> 11 ;
12 [label="entropy = 0.722\nsamples = 10\nvalue = [2, 8]", fillcolor="#6ab6ec"] ;
10 -> 12 ;
}