digraph Tree {
node [shape=box, style="filled, rounded", color="black", fontname=helvetica] ;
edge [fontname=helvetica] ;
0 [label="X[6] <= 4.5\nentropy = 0.76\nsamples = 150\nvalue = [33, 117]", fillcolor="#71b9ec"] ;
1 [label="X[5] <= 0.5\nentropy = 0.976\nsamples = 71\nvalue = [29, 42]", fillcolor="#c2e1f7"] ;
0 -> 1 [labeldistance=2.5, labelangle=45, headlabel="True"] ;
2 [label="X[1] <= 0.5\nentropy = 0.503\nsamples = 27\nvalue = [24, 3]", fillcolor="#e89152"] ;
1 -> 2 ;
3 [label="X[4] <= 0.5\nentropy = 1.0\nsamples = 2\nvalue = [1, 1]", fillcolor="#ffffff"] ;
2 -> 3 ;
4 [label="entropy = 0.0\nsamples = 1\nvalue = [0, 1]", fillcolor="#399de5"] ;
3 -> 4 ;
5 [label="entropy = 0.0\nsamples = 1\nvalue = [1, 0]", fillcolor="#e58139"] ;
3 -> 5 ;
6 [label="X[2] <= 0.5\nentropy = 0.402\nsamples = 25\nvalue = [23, 2]", fillcolor="#e78c4a"] ;
2 -> 6 ;
7 [label="entropy = 0.0\nsamples = 13\nvalue = [13, 0]", fillcolor="#e58139"] ;
6 -> 7 ;
8 [label="X[6] <= 3.5\nentropy = 0.65\nsamples = 12\nvalue = [10, 2]", fillcolor="#ea9a61"] ;
6 -> 8 ;
9 [label="entropy = 1.0\nsamples = 2\nvalue = [1, 1]", fillcolor="#ffffff"] ;
8 -> 9 ;
10 [label="entropy = 0.469\nsamples = 10\nvalue = [9, 1]", fillcolor="#e88f4f"] ;
8 -> 10 ;
11 [label="X[2] <= 0.5\nentropy = 0.511\nsamples = 44\nvalue = [5, 39]", fillcolor="#52aae8"] ;
1 -> 11 ;
12 [label="entropy = 0.0\nsamples = 12\nvalue = [0, 12]", fillcolor="#399de5"] ;
11 -> 12 ;
13 [label="X[4] <= 0.5\nentropy = 0.625\nsamples = 32\nvalue = [5, 27]", fillcolor="#5eafea"] ;
11 -> 13 ;
14 [label="X[3] <= 0.5\nentropy = 0.337\nsamples = 16\nvalue = [1, 15]", fillcolor="#46a4e7"] ;
13 -> 14 ;
15 [label="entropy = 0.0\nsamples = 6\nvalue = [0, 6]", fillcolor="#399de5"] ;
14 -> 15 ;
16 [label="entropy = 0.469\nsamples = 10\nvalue = [1, 9]", fillcolor="#4fa8e8"] ;
14 -> 16 ;
17 [label="X[1] <= 0.5\nentropy = 0.811\nsamples = 16\nvalue = [4, 12]", fillcolor="#7bbeee"] ;
13 -> 17 ;
18 [label="entropy = 0.918\nsamples = 3\nvalue = [2, 1]", fillcolor="#f2c09c"] ;
17 -> 18 ;
19 [label="entropy = 0.619\nsamples = 13\nvalue = [2, 11]", fillcolor="#5dafea"] ;
17 -> 19 ;
20 [label="X[5] <= 0.5\nentropy = 0.289\nsamples = 79\nvalue = [4, 75]", fillcolor="#44a2e6"] ;
0 -> 20 [labeldistance=2.5, labelangle=-45, headlabel="False"] ;
21 [label="entropy = 0.0\nsamples = 29\nvalue = [0, 29]", fillcolor="#399de5"] ;
20 -> 21 ;
22 [label="X[3] <= 0.5\nentropy = 0.402\nsamples = 50\nvalue = [4, 46]", fillcolor="#4aa6e7"] ;
20 -> 22 ;
23 [label="X[2] <= 0.5\nentropy = 0.286\nsamples = 40\nvalue = [2, 38]", fillcolor="#43a2e6"] ;
22 -> 23 ;
24 [label="entropy = 0.0\nsamples = 7\nvalue = [0, 7]", fillcolor="#399de5"] ;
23 -> 24 ;
25 [label="X[0] <= 0.5\nentropy = 0.33\nsamples = 33\nvalue = [2, 31]", fillcolor="#46a3e7"] ;
23 -> 25 ;
26 [label="entropy = 0.0\nsamples = 4\nvalue = [0, 4]", fillcolor="#399de5"] ;
25 -> 26 ;
27 [label="entropy = 0.362\nsamples = 29\nvalue = [2, 27]", fillcolor="#48a4e7"] ;
25 -> 27 ;
28 [label="X[6] <= 5.5\nentropy = 0.722\nsamples = 10\nvalue = [2, 8]", fillcolor="#6ab6ec"] ;
22 -> 28 ;
29 [label="entropy = 0.0\nsamples = 1\nvalue = [1, 0]", fillcolor="#e58139"] ;
28 -> 29 ;
30 [label="X[6] <= 7.0\nentropy = 0.503\nsamples = 9\nvalue = [1, 8]", fillcolor="#52a9e8"] ;
28 -> 30 ;
31 [label="entropy = 0.0\nsamples = 5\nvalue = [0, 5]", fillcolor="#399de5"] ;
30 -> 31 ;
32 [label="entropy = 0.811\nsamples = 4\nvalue = [1, 3]", fillcolor="#7bbeee"] ;
30 -> 32 ;
}